{"n_inputs": 2, "n_hidden": 10, "n_outputs": 2, "hidden_layer": [{"weights": [-0.33895387541094113, -0.7123717098774579], "bias": -1.7864424063058855}, {"weights": [-1.5589918621432979, -3.8863125368830755], "bias": -0.45030711195226797}, {"weights": [3.016533653070308, -4.4867725483491645], "bias": -0.8834064791025725}, {"weights": [-0.048364715734977845, -0.5244912671390947], "bias": -2.7643164519944037}, {"weights": [-1.6895632453077958, 9.853904725881856], "bias": -3.1340196603806767}, {"weights": [-23.392230339580543, 1.8325165003328312], "bias": 10.123244352838663}, {"weights": [23.58028000759694, 1.527630176431826], "bias": -14.125966542162177}, {"weights": [-3.4548426413024123, -0.5413401310443008], "bias": -0.15741488272512824}, {"weights": [-4.276578090195498, -9.494683920659655], "bias": 6.040791994825349}, {"weights": [-3.8392690926817106, 2.6609318373844393], "bias": 0.6901587856924817}], "output_layer": [{"weights": [-0.8538508414196773, 2.2763448179534436, -2.456827379128074, 0.449715925065065, 4.069897805696738, -1.064944898762105, 1.6704898056774318, -4.534420643723707, 4.488354790411721, -2.1432278809815464], "bias": -2.2909505858910184}, {"weights": [-0.534062396633457, 0.5460425931691182, -1.2169372219711467, -0.9740943604396737, -1.5445556794916795, -2.7700096089473774, -2.466489571478579, -0.8195009574320251, -0.7906267336694495, 1.1462372632346085], "bias": 2.3205971419962723}]}